digraph Tree {
node [shape=box, style="filled, rounded", color="black", fontname=helvetica] ;
edge [fontname=helvetica] ;
0 [label="Outside_X_Index <= 0.35\nentropy = 0.725\nsamples = 100.0%\nvalue = [0.798, 0.202]", fillcolor="#eca16b"] ;
1 [label="Steel_Plate_Thickness <= -0.61\nentropy = 0.248\nsamples = 81.2%\nvalue = [0.959, 0.041]", fillcolor="#e68642"] ;
0 -> 1 [labeldistance=2.5, labelangle=45, headlabel="True"] ;
2 [label="Luminosity_Index <= 1.371\nentropy = 0.653\nsamples = 19.6%\nvalue = [0.832, 0.168]", fillcolor="#ea9a61"] ;
1 -> 2 ;
3 [label="Outside_X_Index <= -0.272\nentropy = 0.462\nsamples = 17.8%\nvalue = [0.902, 0.098]", fillcolor="#e88f4e"] ;
2 -> 3 ;
4 [label="Edges_X_Index <= 1.508\nentropy = 0.214\nsamples = 13.3%\nvalue = [0.966, 0.034]", fillcolor="#e68540"] ;
3 -> 4 ;
5 [label="Orientation_Index <= -0.994\nentropy = 0.114\nsamples = 12.7%\nvalue = [0.985, 0.015]", fillcolor="#e5833c"] ;
4 -> 5 ;
6 [label="entropy = 1.0\nsamples = 0.3%\nvalue = [0.5, 0.5]", fillcolor="#ffffff"] ;
5 -> 6 ;
7 [label="Y_Maximum <= -0.895\nentropy = 0.047\nsamples = 12.4%\nvalue = [0.995, 0.005]", fillcolor="#e5823a"] ;
5 -> 7 ;
8 [label="Edges_X_Index <= 0.673\nentropy = 0.722\nsamples = 0.3%\nvalue = [0.8, 0.2]", fillcolor="#eca06a"] ;
7 -> 8 ;
9 [label="entropy = 0.0\nsamples = 0.3%\nvalue = [1.0, 0.0]", fillcolor="#e58139"] ;
8 -> 9 ;
10 [label="entropy = 0.0\nsamples = 0.1%\nvalue = [0.0, 1.0]", fillcolor="#399de5"] ;
8 -> 10 ;
11 [label="entropy = 0.0\nsamples = 12.1%\nvalue = [1.0, 0.0]", fillcolor="#e58139"] ;
7 -> 11 ;
12 [label="Y_Minimum <= -0.758\nentropy = 0.991\nsamples = 0.6%\nvalue = [0.556, 0.444]", fillcolor="#fae6d7"] ;
4 -> 12 ;
13 [label="entropy = 0.0\nsamples = 0.2%\nvalue = [0.0, 1.0]", fillcolor="#399de5"] ;
12 -> 13 ;
14 [label="SigmoidOfAreas <= -1.298\nentropy = 0.65\nsamples = 0.4%\nvalue = [0.833, 0.167]", fillcolor="#ea9a61"] ;
12 -> 14 ;
15 [label="entropy = 0.0\nsamples = 0.1%\nvalue = [0.0, 1.0]", fillcolor="#399de5"] ;
14 -> 15 ;
16 [label="entropy = 0.0\nsamples = 0.3%\nvalue = [1.0, 0.0]", fillcolor="#e58139"] ;
14 -> 16 ;
17 [label="X_Maximum <= -0.865\nentropy = 0.863\nsamples = 4.5%\nvalue = [0.714, 0.286]", fillcolor="#efb388"] ;
3 -> 17 ;
18 [label="Length_of_Conveyer <= -0.677\nentropy = 0.961\nsamples = 1.7%\nvalue = [0.385, 0.615]", fillcolor="#b5daf5"] ;
17 -> 18 ;
19 [label="entropy = 0.0\nsamples = 0.6%\nvalue = [0.0, 1.0]", fillcolor="#399de5"] ;
18 -> 19 ;
20 [label="Length_of_Conveyer <= -0.482\nentropy = 0.977\nsamples = 1.1%\nvalue = [0.588, 0.412]", fillcolor="#f7d9c4"] ;
18 -> 20 ;
21 [label="Y_Minimum <= -0.796\nentropy = 0.65\nsamples = 0.8%\nvalue = [0.833, 0.167]", fillcolor="#ea9a61"] ;
20 -> 21 ;
22 [label="entropy = 0.0\nsamples = 0.1%\nvalue = [0.0, 1.0]", fillcolor="#399de5"] ;
21 -> 22 ;
23 [label="entropy = 0.0\nsamples = 0.6%\nvalue = [1.0, 0.0]", fillcolor="#e58139"] ;
21 -> 23 ;
24 [label="entropy = 0.0\nsamples = 0.3%\nvalue = [0.0, 1.0]", fillcolor="#399de5"] ;
20 -> 24 ;
25 [label="Minimum_of_Luminosity <= -1.092\nentropy = 0.439\nsamples = 2.8%\nvalue = [0.909, 0.091]", fillcolor="#e88e4d"] ;
17 -> 25 ;
26 [label="entropy = 0.811\nsamples = 0.3%\nvalue = [0.25, 0.75]", fillcolor="#7bbeee"] ;
25 -> 26 ;
27 [label="X_Perimeter <= -0.266\nentropy = 0.169\nsamples = 2.6%\nvalue = [0.975, 0.025]", fillcolor="#e6843e"] ;
25 -> 27 ;
28 [label="entropy = 0.0\nsamples = 0.1%\nvalue = [0.0, 1.0]", fillcolor="#399de5"] ;
27 -> 28 ;
29 [label="entropy = 0.0\nsamples = 2.5%\nvalue = [1.0, 0.0]", fillcolor="#e58139"] ;
27 -> 29 ;
30 [label="Empty_Index <= 0.145\nentropy = 0.592\nsamples = 1.8%\nvalue = [0.143, 0.857]", fillcolor="#5aade9"] ;
2 -> 30 ;
31 [label="entropy = 0.0\nsamples = 1.4%\nvalue = [0.0, 1.0]", fillcolor="#399de5"] ;
30 -> 31 ;
32 [label="Maximum_of_Luminosity <= 4.034\nentropy = 0.985\nsamples = 0.5%\nvalue = [0.571, 0.429]", fillcolor="#f8e0ce"] ;
30 -> 32 ;
33 [label="entropy = 0.0\nsamples = 0.2%\nvalue = [1.0, 0.0]", fillcolor="#e58139"] ;
32 -> 33 ;
34 [label="entropy = 0.811\nsamples = 0.3%\nvalue = [0.25, 0.75]", fillcolor="#7bbeee"] ;
32 -> 34 ;
35 [label="X_Maximum <= 2.069\nentropy = 0.012\nsamples = 61.6%\nvalue = [0.999, 0.001]", fillcolor="#e58139"] ;
1 -> 35 ;
36 [label="entropy = 0.0\nsamples = 60.0%\nvalue = [1.0, 0.0]", fillcolor="#e58139"] ;
35 -> 36 ;
37 [label="X_Minimum <= 2.034\nentropy = 0.242\nsamples = 1.6%\nvalue = [0.96, 0.04]", fillcolor="#e68641"] ;
35 -> 37 ;
38 [label="entropy = 0.0\nsamples = 0.1%\nvalue = [0.0, 1.0]", fillcolor="#399de5"] ;
37 -> 38 ;
39 [label="entropy = 0.0\nsamples = 1.5%\nvalue = [1.0, 0.0]", fillcolor="#e58139"] ;
37 -> 39 ;
40 [label="X_Minimum <= -0.845\nentropy = 0.488\nsamples = 18.8%\nvalue = [0.106, 0.894]", fillcolor="#51a9e8"] ;
0 -> 40 [labeldistance=2.5, labelangle=-45, headlabel="False"] ;
41 [label="X_Maximum <= -0.949\nentropy = 0.176\nsamples = 17.1%\nvalue = [0.026, 0.974]", fillcolor="#3ea0e6"] ;
40 -> 41 ;
42 [label="entropy = 0.0\nsamples = 0.2%\nvalue = [1.0, 0.0]", fillcolor="#e58139"] ;
41 -> 42 ;
43 [label="Steel_Plate_Thickness <= -0.335\nentropy = 0.114\nsamples = 16.9%\nvalue = [0.015, 0.985]", fillcolor="#3c9fe5"] ;
41 -> 43 ;
44 [label="Length_of_Conveyer <= -0.691\nentropy = 0.065\nsamples = 16.8%\nvalue = [0.008, 0.992]", fillcolor="#3b9ee5"] ;
43 -> 44 ;
45 [label="Y_Minimum <= 0.422\nentropy = 0.292\nsamples = 2.5%\nvalue = [0.051, 0.949]", fillcolor="#44a2e6"] ;
44 -> 45 ;
46 [label="entropy = 0.0\nsamples = 1.8%\nvalue = [0.0, 1.0]", fillcolor="#399de5"] ;
45 -> 46 ;
47 [label="Y_Minimum <= 0.614\nentropy = 0.684\nsamples = 0.7%\nvalue = [0.182, 0.818]", fillcolor="#65b3eb"] ;
45 -> 47 ;
48 [label="entropy = 0.0\nsamples = 0.1%\nvalue = [1.0, 0.0]", fillcolor="#e58139"] ;
47 -> 48 ;
49 [label="entropy = 0.0\nsamples = 0.6%\nvalue = [0.0, 1.0]", fillcolor="#399de5"] ;
47 -> 49 ;
50 [label="entropy = 0.0\nsamples = 14.2%\nvalue = [0.0, 1.0]", fillcolor="#399de5"] ;
44 -> 50 ;
51 [label="entropy = 0.0\nsamples = 0.1%\nvalue = [1.0, 0.0]", fillcolor="#e58139"] ;
43 -> 51 ;
52 [label="Minimum_of_Luminosity <= -1.248\nentropy = 0.503\nsamples = 1.7%\nvalue = [0.889, 0.111]", fillcolor="#e89152"] ;
40 -> 52 ;
53 [label="entropy = 0.0\nsamples = 0.2%\nvalue = [0.0, 1.0]", fillcolor="#399de5"] ;
52 -> 53 ;
54 [label="entropy = 0.0\nsamples = 1.5%\nvalue = [1.0, 0.0]", fillcolor="#e58139"] ;
52 -> 54 ;
}